-10 -22 9 -54 4 19 47 -9 11 41 30 6 17 -13 -30 38 21 26 25 -3 27 71 -27 3 19 -11 -21 -24 16 11 -9 20 27 127 50 -47 -28 -22 -70 -22 -119 19 -8 -74 73
-74 18 -46 38 8 19 1 73 38 55 -40 -5 -40 61 -34 -21 -14 -57 18 -55 -11 -37 -12 14 6 55 -4 20 -1 110 29 20 67 -127 23 -80 18 31 -99 23 47 34 92 -99 -18
-56 -69 -77 -19 65 44 -30 48 -27 29 39 -35 30 -24 52 -44 34 17 12 41 -23 8 15 -7 28 -27 13 37 -34 -30 127 54 24 -39 -50 22 -23 -26 -30 -17 31 -79 -50 60 -39
14 78 -56 -10 -4 90 -12 25 -36 19 5 69 -62 64 -124 46 55 17 -1 38 -32 -2 -26 -50 51 -23 38 66 -103 92 -8 -25 49 -5 -100 43 -11 -95 42 -49 20 127 -10 -61 -111
2 -77 20 -53 -44 2 4 -114 16 11 6 -13 37 11 89 19 -55 67 -55 49 22 -19 9 -52 36 19 48 -50 19 -3 35 -12 -26 52 -26 55 127 123 -64 -55 -42 -31 13 -80 -89
31 -35 -7 -67 17 43 13 20 -11 -105 -13 32 -28 38 12 25 5 2 -26 52 -12 19 -36 -19 20 12 -75 -34 23 4 2 91 57 37 42 10 51 -46 -127 -93 -5 29 38 -104 16
23 20 14 -12 -5 -7 -39 -11 -3 -4 1 47 26 15 -49 66 88 39 -38 9 -22 58 20 -57 9 -40 29 45 -41 -8 20 -89 -18 54 47 5 -62 -127 -8 -36 39 -43 -77 -36 34
-28 17 21 -22 0 1 5 -27 -52 63 -6 23 8 -11 10 90 37 -4 -11 46 -17 40 14 1 -24 -70 -7 -127 47 -113 -6 8 -7 36 -79 0 -39 35 34 59 -92 -12 -21 -33 71
-10 37 -4 -3 4 -55 22 29 10 12 12 6 -17 31 6 -45 -99 -127 30 -71 39 -42 -11 43 -6 61 -57 -62 62 22 -89 15 14 -73 -20 -49 44 62 11 26 -24 7 26 26 -19
-1 19 -70 5 -127 -25 -11 -50 15 11 19 -9 5 0 8 2 -34 23 2 2 1 3 -32 5 -3 14 14 3 20 8 24 8 6 -82 27 12 48 48 -29 -5 -6 -2 16 -62 3
