260
205
-23
-23
-17
-75
-7
99
-109
49
-18
-17
215
-9
71
91
190
36
225
111
-111
37
39
292
243
-17
120
-13
-25
-9
-13
-26
-8
79
-3
337
81
-13
-9
-9
-11
-9
-10
221
-39
-12
200
-10
307
189
89
45
193
-13
-6
249
243
222
94
-12
-161
223
0
146
-12
-18
-38
-41
-23
-13
-11
-29
-8
208
12
-10
-9
0
312
-14
-111
-14
-8
28
60
0
-19
172
-19
146
97
-7
142
-11
-13
-15
46
-26
-18
-14
93
111
0
-8
-15
-160
234
115
-18
-18
-74
-11
0
-22
-159
273
-17
58
-24
-115
-8
-31
-23
-28
323
81
-6
209
122
117
12
-13
-18
192
181
300
-29
-18
197
-13
323
-9
-18
-14
-94
-5
28
339
-17
-11
123
-18
-26
81
-7
179
-18
-8
0
30
-162
-82
-18
150
27
206
83
134
-9
272
0
-23
131
-94
-73
0
-18
-25
58
-12
238
-11
122
-6
295
-9
74
16
0
58
129
-26
-106
287
68
394
-9
58
-10
124
-12
189
-248
269
-88
-13
106
220
-10
-18
23
120
191
269
-14
-15
-8
277
171
7
0
-20
29
-3
-32
-88
87
225
171
168
58
-75
-16
54
0
-109
-3
208
198
-30
-24
-12
313
87
0
-6
-11
-29
-134
118
-15
89
-17
-18
206
137
-11
-21
-18
205
-8
54
-46
-8
190
-17
-8
311
-146
96
341
341
179
173
97
24
-11
0
154
-17
-13
213
-9
98
-3
-14
-10
-29
0
59
105
78
193
377
0
0
105
-28
-3
169
128
-152
-18
-16
404
-20
155
205
396
21
44
-18
-8
325
38
348
102
209
21
117
126
242
-10
-39
51
-5
71
116
-6
139
127
179
-16
-13
-15
0
243
263
-6
108
113
-82
0
-9
149
243
156
-7
0
-6
-11
30
165
-14
-8
74
270
212
357
-12
9
-8
-4
257
46
238
232
131
21
268
-23
53
70
-39
-19
-26
-74
0
280
368
270
68
54
-8
-20
-12
-9
-36
261
216
-2
327
-13
-16
-26
250
-12
-15
311
-18
-15
-20
244
-24
-7
-14
-11
-19
-10
155
-84
76
185
-20
73
157
31
104
24
114
51
-21
57
208
231
0
0
200
93
87
-11
106
6
-51
209
179
-7
113
367
-110
-27
229
-112
-79
-15
-27
111
-18
146
31
-34
-16
-25
-74
-4
-17
128
120
60
86
168
-9
-23
-9
-18
335
-8
-20
164
271
-84
-25
-71
-4
316
-29
203
0
190
100
43
-10
-11
-9
279
-77
-5
-150
97
-24
312
-10
88
-10
-9
-4
-60
13
332
21
