-7 -6 7 1 -2 -4 -4 -4 -4 -1 -2 -4 49 -5 -6 -2 -5 -3 51 -8 -1 -5 -5 -4 49 4 -2 -7 -8 -7 -2 -9 -1 -10 1 -5 -3 9 4 -5 -8 4 -6 -6 10 -6 -6 4 -7 -3 -8 -1 -6 -2 6 25 48 -5 0 -6 -5 52 -5 -7 1 -2 1 -2 -6 -1 -2 1 6 -6 -23 -8 -6 6 -9 -7 -5 2 -5 -5 -6 2 7 66 -7 4 -6 10 -2 -3 4 -2 -8 -1 1 4 -6 -4 1 2 -6 -3 -6 -8 6 -5 -4 4 3 1 -6 -3 2 -2 7 -5 4 -2 -5 2 -2 -5 -4 -10 -3 -8 -7 -3 1 -9 48 -5 -9 -5 51 -9 -1 0 0 -12 -6 -8 -7 -6 -5 -7 4 -3 4 -1 7 78 -9 -2 -3 -6 0 -7 0 -4 -8 -5 -4 -1 1 -8 -5 -2 -9 -6 -7 3 -6 5 -19 -6 16 9 0 3 -6 -5 3 -21 4 -21 -4 -1 -5 53 -20 -5 0 -1 4 1 5 71 -14 -4 -6 6 -7 -6 0 2 -7 -2 14 -6 5 -3 -4 -8 -1 -7 -3 -19 -6 -2 -8 -3 -10 10 -17 -5 -5 -6 -2 -3 -4 -4 -9 -4 37 -1 -1 0 -2 -23 -4 -8 1 -7 -6 -5 1 1 -2 -1 44 -2 9 5 -4 -9 -2 1 -7 2 75 -2 1 -5 -5 76 -3 -2 -4 70 -7 -1 -4 8 -4 1 -4 -8 4 -3 -2 5 -2 -6 -8 -4 -5 -14 -18 -5 4 -8 -6 -1 -7 -1 -7 -4 4 6 -6 10 -4 -18 -5 -9 -8 -7 -7 -4 -5 -5 -3 52 -8 -1 -9 58 1 -8 -18 -7 -1 -1 -3 0 -1 72 6 -3 2 6 -6 -11 -1 -9 81 -6 4 7 -9 50 65 9 -4 7 -7 -7 73 -3 6 -6 -6 -8 -6 -3 -7 -3 8 -6 -2 -7 -4 -2 -6 -3 7 -3 -20 -7 -3 1 -7 -5 1 -3 -4 -2 -1 -5 1 1 7 -5 -4 50 0 -5 -9 12 9 -9 -1 2 -1 -1 -6 4 50 2 6 2 0 -8 4 75 -5 -5 72 -7 0 -2 -11 -6 -5 -13 -8 0 -8 41 -6 4 6 -7 -1 46 4 -3 -10 -2 -2 -6 4 -7 -4 -4 2 51 -3 -7 2 -5 78 4 -8 -7 1 -9 1 -8 -2 -1 -6 -1 -6 -7 -5 11 7 7 -2 -6 -2 3 -9 -4 -8 6 -9 7 -3 -7 -5 -9 -4 91 -8 1 3 -2 45 -4 -6 2 -2 2 -1 2 -10 -7 3 -7 -8 -3 -6 -9
-8 -8 -6 -3 -4 61 -2 -5 -6 -3 7 3 -7 7 -9 -5 -5 60 -5 31 71 -35 -31 -3 -4 -6 -4 6 -5 7 4 2 0 21 -5 -2 -5 0 7 8 9 -3 -5 -6 0 -5 -6 -2 -8 -7 34 47 -6 -6 -5 7 -4 -6 -2 -1 -2 -5 4 -8 6 -2 -1 -1 46 -2 -6 -1 6 -6 109 0 -8 2 -8 6 0 -4 -6 32 30 6 -5 -9 3 64 -1 0 -3 -8 7 1 -9 -2 -6 -3 -8 -5 -4 -1 -1 2 -7 -11 -5 -2 -5 5 -8 0 -2 1 0 -4 2 1 -4 3 8 5 0 -6 -5 8 -34 -11 -8 1 -1 -7 -6 -4 4 4 -6 -1 1 5 -7 11 -8 -6 1 -6 0 -7 57 1 -1 -4 1 -9 -5 9 0 -8 69 -9 0 -28 1 -6 48 -3 -1 -10 0 -2 -7 -3 -9 7 0 5 1 -1 -32 1 -6 -3 -6 4 -2 105 -6 92 -10 -4 -7 -6 89 -7 -10 -4 1 -3 4 -9 33 0 -9 -2 -29 -5 2 0 2 -5 -36 -8 4 -3 -7 -6 -13 -1 5 98 -6 1 -1 -5 -7 34 -6 -7 -7 -6 -5 47 -4 -2 -3 -25 -5 9 55 3 -3 92 2 -8 7 -8 -6 46 5 -4 -9 3 -3 -2 -5 3 2 -8 -2 -5 -9 -3 -8 -7 1 -4 2 -11 -4 -2 -24 -11 -32 42 -3 6 45 -4 1 -7 -6 46 5 5 -5 -5 -6 -7 42 -10 -6 -5 -1 -6 -9 -12 -3 0 -32 2 11 -5 -7 2 -6 -5 -7 -1 -1 -2 5 1 -34 -6 69 -4 -9 -4 10 -7 -4 -9 -2 -8 -5 44 1 -2 -2 -9 1 -8 8 2 -6 -11 -5 -1 -7 -8 7 -1 -13 -4 -8 -7 -5 6 44 0 -11 0 -7 -6 -7 3 -6 -4 -7 2 6 -8 -5 -4 -16 52 -39 -13 0 -7 103 4 -4 -6 -9 -3 -5 -6 -6 -5 50 8 -8 -7 -2 -5 -3 -7 6 -5 -1 -5 -1 -8 -4 -9 0 1 -6 5 -5 0 -8 -2 1 4 7 -10 52 47 -9 44 -4 -2 -10 -5 -6 16 -9 -5 -1 -3 -6 5 6 -6 -4 -3 -3 -6 -7 62 -21 -29 4 -2 -5 1 5 -4 -2 -8 1 3 -10 8 -10 -8 -5 6 -5 -10 5 0 45 46 -10 -10 -6 -7 -9 -7 3 -8 -7 7 -3 -6 -10 8 -9 1 -4 -5 -8 -9 43 -8 -9 -2 -9 -7 -3 57 6 69 -4 9 3 -5 -11 6 1 -2 -9 -31 -4 -1
-6 -8 3 0 3 -8 3 -5 -5 -5 4 -6 -6 -7 -5 -5 -5 -14 -6 8 -6 116 118 -5 -7 11 -4 6 -2 5 -6 -11 -7 21 3 -4 -5 -4 6 5 -9 2 0 3 -4 -6 -5 2 -6 -3 10 -7 -3 -5 3 -11 -6 -6 -3 -2 87 -5 9 -7 -8 -4 -2 -14 -1 -4 7 8 7 6 -29 0 -2 9 -7 0 91 5 5 4 11 5 2 -6 -8 -20 47 -1 -3 0 9 4 -8 1 -3 11 -8 -5 -2 5 -6 81 -6 -23 5 -6 -5 -10 -1 0 95 -2 6 -17 -5 86 -6 -2 3 1 -6 -6 10 -7 45 -9 -9 10 4 -3 -6 -7 -8 -2 -7 -3 -5 9 3 -2 -7 -5 49 -6 3 -7 -20 -2 -11 -18 7 -7 -7 2 6 -5 -10 -10 -5 86 55 -3 0 -3 4 -9 -8 2 -7 89 -9 9 -6 1 -2 6 53 -5 -5 3 -6 -3 -3 -28 3 -21 12 -4 -5 -7 -21 -8 1 -16 -3 -4 -5 -6 2 -4 -8 -5 93 3 7 6 43 -5 68 -7 -6 3 5 -6 13 55 2 -21 -2 0 -5 -4 -17 -17 -5 -8 -12 -6 10 -2 -4 89 9 21 -6 4 -10 -4 -6 -25 1 6 -4 -9 -7 1 2 -18 7 4 -6 -4 -10 9 -4 -7 -7 -5 -8 10 -5 -1 5 -7 76 -7 -5 -7 58 -6 92 0 2 0 -1 -12 -6 20 9 -6 -3 7 0 -15 -6 -3 -1 -9 -6 -7 -2 -6 -5 -5 -5 -2 89 85 -4 -10 -7 1 -8 -4 -7 -1 46 2 -4 -6 121 -7 -21 -6 -8 -4 36 -5 -1 -10 -4 -4 -16 -1 6 -4 -4 -5 1 -1 5 -8 -5 -1 -7 50 -7 -8 2 7 -21 -5 -6 3 -8 -12 -2 53 -7 -15 8 -1 -1 0 -9 8 -4 -7 8 -8 -4 5 -8 -5 127 -3 0 -10 -25 43 -3 4 -8 -2 -6 -6 -5 -5 -3 -5 1 -5 5 -5 -3 -6 9 -6 1 2 4 -4 -2 5 -5 -6 10 2 -6 1 0 -7 2 2 4 -6 -7 -3 -4 1 -14 -3 -9 3 -7 30 -8 0 52 -5 -6 -9 -1 -4 -4 -7 2 -6 -3 -8 47 76 -7 45 -6 86 -5 -6 94 -8 -1 8 -7 -1 -8 -10 5 8 11 -11 -3 -4 -3 -2 -13 -14 -7 -8 1 -8 2 -9 -4 -3 35 -6 -9 -1 -9 -8 -5 -4 -8 -2 -4 -7 -6 0 9 -6 -5 -4 2 -5 -3 -2 -4 -6 -10 -2 1 -6 -8 122 -9 56
-11 -3 -5 -8 2 -6 -2 29 9 30 -1 -9 -4 4 26 29 -8 -8 -2 -8 -8 -6 -6 -8 -3 1 32 -2 0 6 -1 -6 10 -13 -5 -7 28 2 3 2 4 -1 5 -11 3 1 -8 4 -7 70 -10 -6 -9 -6 -2 -1 -2 -5 33 -5 -5 -1 -1 7 -4 -6 -6 -7 -9 -3 5 -4 -2 -11 -3 7 -7 9 -8 -4 -6 -2 2 -7 -7 1 5 -9 -9 -4 -8 -2 46 -4 0 -7 11 -5 7 6 -9 -6 0 -1 8 -4 -5 3 -5 3 0 -1 4 -4 -5 -5 -4 -7 -4 -4 8 0 -7 4 -4 30 7 -6 -8 -11 -9 -9 -8 -6 0 -9 -9 1 -2 -7 -3 2 -4 -11 -9 -5 -7 -8 -3 -8 -2 -11 1 -5 -5 -12 2 -3 6 -24 -6 -9 10 -3 -8 -8 -7 33 2 -7 -9 0 -9 -5 -11 -7 5 -4 97 4 -7 1 34 -7 -9 7 42 -1 -4 -10 -6 -6 -7 -2 -7 2 2 -6 -9 31 -6 -8 3 -6 -9 5 -6 -12 -4 -3 -8 27 -13 -6 2 0 -3 -8 -5 -7 1 0 54 8 -2 2 3 -6 73 -8 -9 2 5 -7 -7 -4 8 -6 -1 1 -5 -6 -2 -7 2 4 -2 -9 -6 -7 0 -5 -5 -1 0 40 4 7 -6 -3 7 30 -9 -5 -11 -4 5 -7 -5 -20 0 -3 -5 -12 -8 -6 10 -5 -6 -7 -4 -13 -8 -7 -1 3 -9 -10 1 50 -8 27 76 -7 -5 0 -8 3 -8 46 -6 -3 -1 -2 -6 -10 -7 81 -6 -13 -8 -8 9 -4 -7 -6 -6 -4 7 30 -9 -4 -3 -10 96 10 -7 -6 -5 26 45 -12 5 9 -8 8 -6 -7 -4 -10 -19 -9 8 10 1 -2 -13 1 3 7 -8 -8 -9 -6 -2 51 -5 -24 2 0 36 6 6 -4 22 -12 -4 -7 -6 -15 7 -9 -10 -7 3 -10 -10 -6 47 0 -4 29 -6 6 3 -3 -5 -7 47 -2 -7 -5 -2 -6 1 -4 7 6 -4 10 -6 -6 -3 -5 -7 7 -4 -1 9 -10 -7 -6 -9 -8 -5 32 20 -10 -7 -11 6 2 -9 0 -5 -5 6 -7 32 -3 -14 29 -13 -7 -5 -6 -4 -8 2 -4 3 -5 -4 9 -5 -8 -22 4 -10 -10 -4 7 3 -10 -2 3 -6 -8 -11 -12 -7 -3 1 -6 6 -5 -1 -3 -10 -6 -10 0 10 -4 -4 -7 -9 3 -6 -23 26 4 5 -2 0 -7 3 -5 28 -2 -9 -5 8 2 10 0 9 -5 -6 -11
29 -9 -3 5 -3 -17 -7 -5 -23 -5 -7 -1 -9 -2 -5 -5 -8 -9 -8 -3 -29 -5 -10 48 -8 3 -7 6 -6 2 3 0 -6 -15 -7 58 -6 -7 6 1 8 8 2 2 -9 7 -7 8 31 -9 -5 -6 -8 -5 -3 -8 -9 -5 -5 7 -19 -5 -1 -7 -1 -8 10 -24 -7 7 6 4 2 5 -24 0 -8 9 30 3 -22 0 -5 -4 -6 2 -6 -12 -1 -6 -3 -3 -7 3 -4 1 -11 6 0 -7 11 -11 -7 -6 -4 -18 -5 2 10 -2 -22 0 2 -4 -20 54 -1 -9 -2 -21 -7 2 -6 3 50 -5 1 75 33 18 -13 1 -12 70 -4 46 -1 3 -8 6 51 4 2 -6 10 -6 -6 28 -7 -9 -4 -3 1 -8 -3 -12 -1 -2 8 70 -30 -14 -1 -27 -6 -8 -8 -5 -2 36 1 -5 28 -21 19 2 1 4 -19 -4 -17 1 -6 -8 62 0 -6 -18 -4 4 -42 -3 14 -7 3 39 7 -8 7 -7 4 -13 -47 54 14 7 -27 -3 -10 -6 -6 -6 -20 32 5 -5 -4 29 -34 -8 4 -17 -8 0 5 -24 -21 -6 6 -13 -11 -26 -3 -3 -5 -20 7 59 -5 -4 -18 2 49 3 8 -1 2 -14 -21 -4 10 -5 -2 4 -7 -5 6 2 -4 5 -8 -8 10 -2 -10 -1 -5 38 -18 -10 43 49 -31 -14 -30 -5 -5 -7 -4 -1 -5 -3 -3 -4 -5 2 7 -26 1 -11 -4 -2 5 38 -1 -5 -15 2 9 -5 -31 -20 -4 4 36 -3 -11 -1 36 1 -4 6 -5 47 -9 35 -6 -7 -9 -5 -2 -7 -5 -14 -20 -3 -9 -6 -8 -8 -5 -12 -4 -2 3 0 -7 10 2 -6 -8 14 4 -3 0 -7 -12 -5 5 12 -6 -8 -14 -24 -7 -10 -4 85 46 1 -7 -8 8 -9 -6 1 84 -4 -9 88 -7 -11 2 -3 -7 3 11 -1 -9 41 62 -4 -6 -10 -5 4 -7 18 -6 -8 2 37 9 1 1 7 7 5 44 5 -2 -4 -7 -3 2 -1 0 -1 7 -13 -17 -3 -11 -7 -5 -7 -2 -8 -10 1 -9 6 -4 -5 -4 6 -6 -5 -5 -6 -7 -4 -10 -16 -29 -31 -2 -4 45 -20 -5 -8 -20 -10 -1 -3 -10 -9 24 -14 5 1 6 -14 1 -5 -3 -3 -10 -11 -13 8 -4 0 -7 36 -6 8 -3 60 13 -1 -11 -2 46 1 62 -3 -2 -13 -8 -1 2 4 -6 -17 0 -30 -5 3 60 -4 -7 6 -6 -3 -8 -6 35 -6
-6 34 -3 -2 4 -8 -7 -6 -24 -6 5 1 -9 -7 -3 -5 28 -5 -8 -6 -9 -48 -51 -7 -8 6 -7 4 0 -3 5 -5 -8 11 1 -4 -6 -6 10 1 1 -8 -5 69 2 -6 28 6 -2 -4 -7 -9 29 4 -2 -11 -8 36 -6 -1 -36 -7 -4 -5 -2 -6 -2 111 -5 5 8 -1 5 71 -9 6 -5 -4 -3 3 -40 -8 1 -10 -6 1 -9 -6 -7 -12 3 -2 -5 -7 -2 -2 -7 4 -8 -3 -13 19 8 -5 -5 -34 53 84 -5 3 -21 -6 -6 -7 -39 -8 -4 93 4 -39 5 -4 0 -5 -9 -5 -6 -23 -37 -13 18 4 -6 -20 -7 -8 8 2 -9 0 -10 -2 -9 0 -13 0 6 -2 8 -1 -10 -2 1 98 -1 -7 -7 -8 -3 -34 -7 4 -8 11 3 27 -8 -7 7 -8 1 -4 -16 -37 -17 -1 2 -6 -1 3 3 -2 -8 6 -7 -7 -4 -5 3 -13 98 0 -14 -9 -11 2 1 98 9 -8 -2 -8 -37 -8 -14 2 9 72 10 -4 3 -5 1 -7 -4 9 2 -3 84 5 2 -2 -5 4 -4 -23 109 -12 -7 29 43 -25 -6 -10 5 -38 7 -22 -8 -2 -10 -1 -10 -13 -3 -4 -11 5 13 -9 3 98 3 -5 -8 -5 -4 1 -6 61 1 -9 -10 -1 -5 -1 1 -4 -35 -8 -3 -9 35 -7 16 -8 -2 2 -8 3 -2 46 -3 -9 -5 -6 7 114 -8 -8 -9 -2 -7 -6 -2 -3 20 8 5 -4 17 -35 0 1 -4 8 26 -6 -4 18 11 -3 0 -13 -48 -2 -14 -9 -4 -6 4 -8 -7 7 -5 2 92 -9 -4 -7 -5 -7 10 0 -7 5 34 69 7 4 -7 -15 4 -5 95 -7 -7 2 0 10 -6 0 -7 123 -5 -7 55 -6 -1 5 -5 4 -7 32 -2 70 -9 -10 -55 -4 1 104 -13 2 4 -3 -13 -9 -7 0 -9 -7 -8 6 -6 7 4 -17 -4 -9 10 -5 -2 -7 -4 70 6 0 -11 0 -3 -2 -8 -4 -3 -11 -6 3 -7 -6 -9 -7 -6 -6 89 -6 -5 27 3 5 -6 -2 3 -8 36 -4 0 38 -7 -9 10 -5 5 -8 44 20 -1 6 -3 -38 0 -7 -38 -7 0 -8 -8 -3 -16 23 2 -2 5 4 2 -1 -8 -8 40 54 22 -4 -6 2 8 -7 -7 -5 16 -6 -12 9 -7 -4 -8 4 2 -1 -8 -8 -4 8 -7 -8 -7 -9 10 -7 -4 4 -6 -8 -6 -5 7 -6 -4 -55 -6 5
-5 1 -2 5 7 -2 -6 5 73 4 0 0 -3 10 11 3 -4 -1 -4 -4 -2 0 0 -6 -3 -5 -2 -4 4 3 2 4 -6 -6 -6 -6 3 1 5 -7 5 7 1 -7 7 -1 -4 -7 -1 -16 -3 -3 -5 -7 2 -5 -4 1 -3 -1 -3 -4 4 55 -6 6 3 -5 -3 -5 -1 9 2 -8 -4 1 7 -9 -2 2 -3 -7 -4 -4 -3 -9 4 -4 0 -2 -4 -7 -13 4 2 -1 58 5 -8 -3 -5 -3 -7 -8 3 -2 0 11 -3 -11 77 4 3 4 -3 -5 -8 -7 -2 -3 -3 7 6 7 -6 5 0 -9 -2 -6 -4 7 -10 -10 -3 -7 6 5 -5 3 -5 4 -7 -8 -5 5 -4 -2 1 -4 -2 -4 -1 -4 -7 -2 -7 -6 4 -5 -3 -4 2 0 -4 -4 -4 -2 5 -3 2 5 -6 -3 -5 6 10 6 -14 -1 -1 -1 1 -9 -7 4 -14 -2 -4 -3 -5 -1 -3 -4 -3 6 0 -5 -6 0 -5 -3 49 -6 -4 -1 -2 -8 1 -9 -5 7 -2 -2 1 1 -4 -1 -5 -3 4 -2 -4 -3 -7 80 11 -2 -20 -4 -5 83 2 -4 -6 -2 1 -5 -4 -3 -3 -7 -6 -3 -3 2 -5 -4 -3 -5 -9 -5 3 2 -4 -13 -7 4 1 4 7 0 -5 -7 -1 -2 -7 -2 -4 1 2 -5 -1 -4 -4 -3 1 5 -4 1 -10 -8 7 -4 -8 -6 8 -6 6 -3 -3 18 -18 -3 -7 3 -4 1 7 -12 -3 -3 12 10 -2 0 -3 -16 0 -6 -4 9 -5 -6 -1 -1 -4 -4 57 -1 -4 -4 6 -5 -15 -2 -6 -3 8 -3 -14 -2 -10 -3 -3 -4 -1 2 -3 -5 1 -5 4 -3 8 -4 -2 9 8 -7 -3 -3 -4 -5 0 -6 1 -4 3 -5 7 -8 -9 0 9 -8 -8 -4 -1 -7 0 -7 -5 -3 4 2 -5 -8 -12 5 -4 3 -4 -4 5 -3 -5 -5 -13 -3 -9 -2 6 -2 5 3 3 4 -3 11 -1 6 -3 7 3 -8 6 -1 1 -3 -2 -3 -3 -2 -6 -3 30 -6 -3 -6 63 -11 -5 -4 0 6 -2 -2 -2 -4 -8 7 -7 -2 -4 -2 8 -4 1 -2 -2 -3 -2 56 1 -4 1 9 -6 -5 8 -3 -3 -4 -10 0 -3 -4 -6 -7 -3 -2 3 -3 4 -1 3 6 -5 -4 -5 6 66 -5 -6 5 11 1 -4 2 17 2 10 8 -3 -2 -4 -2 0 -3 -5 -10 62 7 9 -5 57 0 -3 -5
17 -3 -1 -5 4 -1 4 -3 0 -3 -7 6 -3 -3 -4 -3 -1 -2 -2 -6 0 -2 -1 3 -3 3 -2 -3 -8 -6 -1 -5 -4 -3 6 -14 -2 0 -7 0 -10 -2 1 -6 9 -8 -2 -6 13 -2 -5 -3 -2 8 -8 -4 -3 -3 -1 4 -1 -2 -7 -4 -8 5 2 2 -3 0 6 -10 -8 -8 1 7 -4 -2 11 2 -2 -9 6 -3 -4 -6 1 -4 -4 -1 -4 -8 -2 8 -1 12 -5 2 -5 1 60 -1 1 3 1 -1 -8 -8 -4 -11 -1 0 -8 -3 -3 -12 4 -2 -4 -1 -2 -1 9 -6 -8 -3 -4 -12 -10 53 -1 8 5 3 -2 9 3 11 -3 7 -9 8 -2 0 61 -9 -4 12 -1 -1 -2 -9 -8 -2 -1 -3 2 4 -1 39 1 -4 2 0 -4 -1 -4 -1 5 19 6 -6 38 -2 65 -3 6 -1 1 -1 -2 -7 -3 -6 -10 -2 -1 2 -8 -6 2 -5 58 -3 -4 -14 -4 -3 -7 -2 5 -3 1 -13 65 -5 -2 -6 -6 -1 -4 -3 -4 12 -11 -4 -1 14 0 -4 -4 2 -1 -7 -3 1 -3 -2 -2 -1 -3 -1 -1 -4 8 -1 -6 -15 -2 -12 0 -8 -10 -5 4 -6 3 -5 -27 -5 1 -1 0 4 -2 -2 4 -4 -3 -8 -4 -2 55 2 -3 4 -2 5 -2 -3 -13 -8 0 -4 -2 -3 2 5 -4 -3 5 -6 -3 -3 -6 0 -7 -4 -9 -2 -3 -5 -3 5 2 2 1 -3 6 -1 -2 -1 5 3 5 -3 0 -2 5 0 -5 2 -5 -8 -2 5 -4 -2 -5 -2 -5 -2 -6 -5 -2 7 -1 -3 9 -2 -2 -3 5 -1 4 3 -4 -10 8 -5 -3 62 0 -4 -8 -3 -4 4 -8 -3 -3 -4 -4 3 3 -1 -8 -24 -14 0 -4 9 -5 -3 -2 -7 -15 -4 -2 -21 4 -3 -5 -3 0 -7 59 -6 -3 -13 -12 -3 -4 6 4 -4 -2 66 -1 -3 -4 3 -9 -1 2 -7 4 5 -8 10 -4 3 -3 -4 8 -4 -2 4 -4 -3 -1 -3 -2 -3 -1 0 -4 -3 -5 -7 -5 9 -5 -2 -5 -3 1 -5 -2 -3 -7 -4 -2 -2 2 -1 -8 -4 -11 -1 0 -2 0 -4 5 -6 -2 0 43 0 -3 3 -6 -5 -5 5 -3 -4 0 1 0 3 -11 7 -4 12 9 6 -6 -12 60 -1 -5 -3 -9 -13 -16 -5 -4 -3 -4 2 -9 -6 -2 -2 0 1 -2 -2 -12 1 -5 -6 3 5 -5 -1 4 -5
-2 13 0 0 3 -1 -1 -2 -2 -2 0 1 -3 -6 -3 -3 16 -1 -3 -3 -3 3 3 -2 -3 5 -2 5 -3 -1 9 -5 -4 -9 -7 -3 -2 -6 -7 1 5 -5 -5 -21 0 -5 22 -2 -4 -2 -2 -2 16 0 -1 -3 -3 9 -1 9 1 -2 -6 -3 -6 4 4 -27 -2 11 -4 5 0 -23 -2 5 -5 -1 -3 -3 -1 4 -6 -3 -2 2 4 -3 -1 -3 -6 -6 -2 2 -14 -10 -3 -4 2 10 -1 25 -2 -1 9 0 -2 -27 3 -10 -2 4 -5 -5 1 -2 6 -31 0 0 -2 8 4 9 -2 -2 -5 2 4 1 44 2 1 -5 -2 -1 -1 -4 -3 -1 -2 4 1 -8 0 -3 -6 0 7 69 -2 0 -3 -31 -1 -2 5 5 5 -16 -2 83 6 -7 -4 18 -4 -1 2 -3 -3 -1 -1 0 -6 6 4 0 0 5 -6 -6 -3 -3 -1 -1 -2 0 -8 -2 -31 6 -4 -4 0 -4 -6 -29 4 -3 1 -2 -3 -3 -2 3 -9 -23 3 1 -5 -3 -7 -3 -8 -3 -1 -3 -31 -6 -5 0 -1 9 5 -1 -30 -3 -2 20 24 -3 7 -3 0 0 8 1 -2 -9 -2 1 -3 -1 -5 8 -10 77 114 -4 2 -32 10 -5 -2 -2 -7 0 -5 -17 2 -3 0 5 -2 6 -2 -2 -2 -2 -3 -2 -13 -3 -10 -3 -5 1 -3 -5 -7 -18 0 -3 4 1 1 -16 3 -2 -3 -4 -3 -4 1 5 33 -1 4 -1 -7 0 2 11 -3 9 21 -1 -2 7 -7 5 -4 -1 1 -3 -3 -2 -4 -2 -6 -3 -8 80 -2 2 -25 -2 -3 -2 -2 -2 -5 13 1 1 11 -22 4 -7 -2 -3 3 0 -30 -3 -3 5 -7 2 -2 -5 -3 -36 -5 -1 -4 -1 -5 0 -2 9 -2 17 -1 -25 -1 -4 3 0 12 -31 -1 -5 7 -1 -1 2 -3 -4 0 -3 -3 1 -5 -8 2 -20 -2 -3 10 -3 -3 8 -8 -21 -8 -3 -1 -9 1 5 -3 -12 7 -3 8 0 -4 -2 -2 -2 -1 -1 -28 -1 -4 14 71 -6 -4 -6 -6 -3 8 4 -7 11 -2 -3 -6 -3 7 -2 -18 -7 2 -6 -3 1 7 -2 3 -3 -1 3 -1 0 0 41 -5 -1 4 85 -4 -7 -3 -3 28 20 26 -9 8 4 1 -4 5 -5 -9 -1 0 -3 -4 -3 -1 2 -3 8 -3 -2 -3 -6 -6 7 -2 -2 1 -2 -1 2 -3 6 -4 1 -1 -7 -4 3 -3 -6
